digraph Tree {
node [shape=box, style="filled, rounded", color="black", fontname="helvetica"] ;
edge [fontname="helvetica"] ;
0 [label="sepal length (cm) <= 5.45\ngini = 0.66\nsamples = 92\nvalue = [50, 44, 56]\nclass = virginica", fillcolor="#f7f3fd"] ;
1 [label="petal width (cm) <= 0.8\ngini = 0.15\nsamples = 31\nvalue = [45, 2, 2]\nclass = setosa", fillcolor="#e78c4a"] ;
0 -> 1 [labeldistance=2.5, labelangle=45, headlabel="True"] ;
2 [label="gini = 0.0\nsamples = 28\nvalue = [45, 0, 0]\nclass = setosa", fillcolor="#e58139"] ;
1 -> 2 ;
3 [label="petal length (cm) <= 4.2\ngini = 0.5\nsamples = 3\nvalue = [0, 2, 2]\nclass = versicolor", fillcolor="#ffffff"] ;
1 -> 3 ;
4 [label="gini = 0.0\nsamples = 2\nvalue = [0, 2, 0]\nclass = versicolor", fillcolor="#39e581"] ;
3 -> 4 ;
5 [label="gini = 0.0\nsamples = 1\nvalue = [0, 0, 2]\nclass = virginica", fillcolor="#8139e5"] ;
3 -> 5 ;
6 [label="petal length (cm) <= 4.85\ngini = 0.54\nsamples = 61\nvalue = [5, 42, 54]\nclass = virginica", fillcolor="#e5d7fa"] ;
0 -> 6 [labeldistance=2.5, labelangle=-45, headlabel="False"] ;
7 [label="sepal width (cm) <= 3.4\ngini = 0.27\nsamples = 28\nvalue = [5, 38, 2]\nclass = versicolor", fillcolor="#5cea97"] ;
6 -> 7 ;
8 [label="petal width (cm) <= 1.7\ngini = 0.09\nsamples = 25\nvalue = [0, 38, 2]\nclass = versicolor", fillcolor="#43e688"] ;
7 -> 8 ;
9 [label="gini = 0.0\nsamples = 22\nvalue = [0, 35, 0]\nclass = versicolor", fillcolor="#39e581"] ;
8 -> 9 ;
10 [label="sepal length (cm) <= 5.95\ngini = 0.48\nsamples = 3\nvalue = [0, 3, 2]\nclass = versicolor", fillcolor="#bdf6d5"] ;
8 -> 10 ;
11 [label="gini = 0.0\nsamples = 1\nvalue = [0, 3, 0]\nclass = versicolor", fillcolor="#39e581"] ;
10 -> 11 ;
12 [label="gini = 0.0\nsamples = 2\nvalue = [0, 0, 2]\nclass = virginica", fillcolor="#8139e5"] ;
10 -> 12 ;
13 [label="gini = 0.0\nsamples = 3\nvalue = [5, 0, 0]\nclass = setosa", fillcolor="#e58139"] ;
7 -> 13 ;
14 [label="petal width (cm) <= 1.75\ngini = 0.13\nsamples = 33\nvalue = [0, 4, 52]\nclass = virginica", fillcolor="#8b48e7"] ;
6 -> 14 ;
15 [label="petal length (cm) <= 5.35\ngini = 0.32\nsamples = 4\nvalue = [0, 4, 1]\nclass = versicolor", fillcolor="#6aeca0"] ;
14 -> 15 ;
16 [label="gini = 0.0\nsamples = 3\nvalue = [0, 4, 0]\nclass = versicolor", fillcolor="#39e581"] ;
15 -> 16 ;
17 [label="gini = 0.0\nsamples = 1\nvalue = [0, 0, 1]\nclass = virginica", fillcolor="#8139e5"] ;
15 -> 17 ;
18 [label="gini = 0.0\nsamples = 29\nvalue = [0, 0, 51]\nclass = virginica", fillcolor="#8139e5"] ;
14 -> 18 ;
}